digraph Tree {
node [shape=box] ;
0 [label="cat_pipe__marital.status_ Married-civ-spouse <= 0.5\nentropy = 0.796\nsamples = 32561\nvalue = [24720, 7841]\nclass = 0"] ;
1 [label="num_pipe__capital.gain <= 7073.5\nentropy = 0.348\nsamples = 17585\nvalue = [16436, 1149]\nclass = 0"] ;
0 -> 1 [labeldistance=2.5, labelangle=45, headlabel="True"] ;
2 [label="num_pipe__education.num <= 12.5\nentropy = 0.283\nsamples = 17274\nvalue = [16425, 849]\nclass = 0"] ;
1 -> 2 ;
3 [label="num_pipe__age <= 28.5\nentropy = 0.167\nsamples = 13864\nvalue = [13522, 342]\nclass = 0"] ;
2 -> 3 ;
4 [label="entropy = 0.043\nsamples = 6212\nvalue = [6183, 29]\nclass = 0"] ;
3 -> 4 ;
5 [label="entropy = 0.246\nsamples = 7652\nvalue = [7339, 313]\nclass = 0"] ;
3 -> 5 ;
6 [label="num_pipe__age <= 27.5\nentropy = 0.607\nsamples = 3410\nvalue = [2903, 507]\nclass = 0"] ;
2 -> 6 ;
7 [label="entropy = 0.13\nsamples = 1003\nvalue = [985, 18]\nclass = 0"] ;
6 -> 7 ;
8 [label="entropy = 0.728\nsamples = 2407\nvalue = [1918, 489]\nclass = 0"] ;
6 -> 8 ;
9 [label="num_pipe__education.num <= 10.5\nentropy = 0.221\nsamples = 311\nvalue = [11, 300]\nclass = 1"] ;
1 -> 9 ;
10 [label="num_pipe__hours.per.week <= 36.0\nentropy = 0.503\nsamples = 99\nvalue = [11, 88]\nclass = 1"] ;
9 -> 10 ;
11 [label="entropy = 0.964\nsamples = 18\nvalue = [7, 11]\nclass = 1"] ;
10 -> 11 ;
12 [label="entropy = 0.284\nsamples = 81\nvalue = [4, 77]\nclass = 1"] ;
10 -> 12 ;
13 [label="entropy = 0.0\nsamples = 212\nvalue = [0, 212]\nclass = 1"] ;
9 -> 13 ;
14 [label="num_pipe__education.num <= 12.5\nentropy = 0.992\nsamples = 14976\nvalue = [8284, 6692]\nclass = 0"] ;
0 -> 14 [labeldistance=2.5, labelangle=-45, headlabel="False"] ;
15 [label="num_pipe__capital.gain <= 5095.5\nentropy = 0.916\nsamples = 10507\nvalue = [7029, 3478]\nclass = 0"] ;
14 -> 15 ;
16 [label="num_pipe__education.num <= 8.5\nentropy = 0.877\nsamples = 9979\nvalue = [7018, 2961]\nclass = 0"] ;
15 -> 16 ;
17 [label="entropy = 0.472\nsamples = 1656\nvalue = [1489, 167]\nclass = 0"] ;
16 -> 17 ;
18 [label="entropy = 0.921\nsamples = 8323\nvalue = [5529, 2794]\nclass = 0"] ;
16 -> 18 ;
19 [label="num_pipe__age <= 60.5\nentropy = 0.146\nsamples = 528\nvalue = [11, 517]\nclass = 1"] ;
15 -> 19 ;
20 [label="entropy = 0.022\nsamples = 462\nvalue = [1, 461]\nclass = 1"] ;
19 -> 20 ;
21 [label="entropy = 0.614\nsamples = 66\nvalue = [10, 56]\nclass = 1"] ;
19 -> 21 ;
22 [label="num_pipe__capital.gain <= 5095.5\nentropy = 0.857\nsamples = 4469\nvalue = [1255, 3214]\nclass = 1"] ;
14 -> 22 ;
23 [label="num_pipe__capital.loss <= 1782.5\nentropy = 0.915\nsamples = 3788\nvalue = [1252, 2536]\nclass = 1"] ;
22 -> 23 ;
24 [label="entropy = 0.947\nsamples = 3390\nvalue = [1239, 2151]\nclass = 1"] ;
23 -> 24 ;
25 [label="entropy = 0.208\nsamples = 398\nvalue = [13, 385]\nclass = 1"] ;
23 -> 25 ;
26 [label="num_pipe__age <= 62.5\nentropy = 0.041\nsamples = 681\nvalue = [3, 678]\nclass = 1"] ;
22 -> 26 ;
27 [label="entropy = 0.0\nsamples = 609\nvalue = [0, 609]\nclass = 1"] ;
26 -> 27 ;
28 [label="entropy = 0.25\nsamples = 72\nvalue = [3, 69]\nclass = 1"] ;
26 -> 28 ;
}